n= 1393 

node), split, n, deviance, yval
      * denotes terminal node

 1) root 1393 7384.29700  6.317897  
   2) Gust< 7.660522 734  733.46720  5.141031  
     4) Gust< 6.082669 231  184.93450  4.013258  
       8) Gust< 4.835365 73   81.16534  3.163564 *
       9) Gust>=4.835365 158   26.71373  4.405839 *
     5) Gust>=6.082669 503  119.80320  5.658955 *
   3) Gust>=7.660522 659 4501.93300  7.628700  
     6) Gust< 15.03887 647  576.23120  7.438499  
      12) Gust< 9.0731 420   79.48913  6.960959 *
      13) Gust>=9.0731 227  223.75210  8.322052 *
     7) Gust>=15.03887 12 2640.31000 17.883720 *
