n= 1393 

node), split, n, deviance, yval
      * denotes terminal node

 1) root 1393 7384.29700  6.317897  
   2) Wvht< 1.655 1142 4318.94300  6.092313  
     4) Wvht< 1.035 61   68.31823  4.376678 *
     5) Wvht>=1.035 1081 4060.94500  6.189125  
      10) Dewp< 24.87 1073 2239.15700  6.151915  
        20) Wvht< 1.285 389  777.51620  5.751651 *
        21) Wvht>=1.285 684 1363.87500  6.379551 *
      11) Dewp>=24.87 8 1621.04400 11.179850 *
   3) Wvht>=1.655 251 2742.83100  7.344260  
     6) Dpd< 13.35 231  604.99080  7.125056  
      12) Wdir>=182 11   62.81362  4.209627 *
      13) Wdir< 182 220  444.00540  7.270828 *
     7) Dpd>=13.35 20 1998.54100  9.876057  
      14) Atmp>=27.875 9   10.24845  6.084953 *
      15) Atmp< 27.875 11 1753.10700 12.977870 *
