n= 1265 

node), split, n, deviance, yval
      * denotes terminal node

 1) root 1265 26730.10000  4.3511090  
   2) Gust< 7.548766 1003  8898.76000  3.1537610  
     4) Gust< 3.488558 340  1056.21400  1.0588650  
       8) Month>=8 190    76.38398  0.2306043 *
       9) Month< 8 150   684.38570  2.1079950 *
     5) Gust>=3.488558 663  5585.23600  4.2280660  
      10) Gust< 5.47519 364  1915.95400  3.5138410 *
      11) Gust>=5.47519 299  3257.55000  5.0975580 *
   3) Gust>=7.548766 262 10888.60000  8.9348520  
     6) Gust< 33.56334 241  3226.44200  7.8079870  
      12) Gust< 10.00904 145   886.38150  6.9299190 *
      13) Gust>=10.00904 96  2059.40700  9.1342360  
        26) Wdir< 325.5 88   439.56950  8.5835210 *
        27) Wdir>=325.5 8  1299.56700 15.1921000 *
     7) Gust>=33.56334 21  3844.09600 21.8669600  
      14) Mwd>=108 9  1257.02500 14.2271400 *
      15) Mwd< 108 12  1667.79100 27.5968400 *
